-0.054840 -0.043686 -0.039770 -0.024295 -0.058293 -0.056322 -0.039457 -0.026149 -0.009713 -0.056989 -0.047978 -0.022033 -0.017463 -0.002259 -0.037985 -0.038680 -0.015593 -0.019118 0.004887 -0.032659 -0.046319 -0.016668 -0.007809 -0.006058 -0.011435 0.156753 0.200448 0.106461 0.054861 0.084063 0.150981 0.151516 0.020704 -0.034002 -0.070643 0.054831 0.026022 -0.052659 -0.106127 -0.089149 0.053536 0.062037 -0.056970 -0.119808 -0.078115 0.078318 0.014883 -0.000209 -0.069299 -0.128173 -0.064778 -0.099686 -0.054123 -0.075099 -0.062980 -0.081338 -0.107975 -0.071310 -0.063852 -0.043719 -0.000079 -0.107802 -0.060511 -0.057669 -0.055412 0.026229 -0.066730 -0.068568 -0.026885 -0.052214 0.144512 0.033938 -0.081113 -0.069556 -0.057799 0.242806 0.079875 -0.017864 0.104591 0.235862 0.174685 0.038930 -0.094916 -0.033196 0.126770 0.158359 0.022321 -0.192253 -0.145296 0.027179 0.144814 0.022152 -0.177055 -0.213774 0.029301 0.185945 0.080998 -0.166113 -0.156784 0.161398 -0.092992 -0.149358 -0.169628 -0.137995 -0.156103 -0.004388 -0.072860 -0.222119 -0.281228 -0.162201 0.015384 -0.002858 -0.023196 -0.031212 0.004148 -0.002846 0.011673 0.048984 0.068124 0.084173 0.086279 -0.012349 0.076175 0.091920 0.087263 -0.053857 -0.051989 -0.057839 -0.049271 -0.038603 -0.064627 -0.066621 -0.071653 -0.062100 -0.054033 -0.065799 -0.068992 -0.078806 -0.067702 -0.059910 -0.073215 -0.058175 -0.071491 -0.055292 -0.056109 -0.062324 -0.063104 -0.052919 -0.064199 -0.067281 -0.143906 -0.169203 0.044038 0.038315 0.059658 -0.178665 -0.250648 -0.004546 0.037891 0.106734 -0.102178 -0.174992 0.053856 0.104764 0.121829 0.065890 -0.152018 0.104256 0.157554 0.148960 0.170098 -0.072052 0.064585 0.195024 0.169911 -0.063500 -0.035182 -0.044156 -0.043813 -0.064401 -0.037382 -0.022631 -0.045298 -0.037765 -0.068134 -0.029049 -0.018044 -0.047187 -0.021018 -0.059103 -0.041481 0.002019 -0.007667 0.007166 -0.068075 -0.045857 -0.031309 -0.016013 -0.026375 -0.065559 0.121272 0.090963 -0.043895 0.130699 0.169344 0.074525 0.031821 -0.184582 0.000069 0.105698 0.157396 0.016773 -0.226273 -0.097189 0.041833 0.126244 0.017876 -0.195755 -0.239750 -0.162374 0.166023 0.034624 -0.221878 -0.285695 -0.203183 0.118799 0.154575 0.168512 0.158253 -0.008286 0.016146 0.073277 0.117402 0.053318 -0.074680 -0.029334 0.006263 0.051746 -0.029374 -0.181683 -0.057560 -0.051817 -0.043739 -0.092157 -0.264643 -0.057603 -0.076628 -0.054932 -0.122415 -0.267065 0.107944 0.093278 0.083500 0.134273 0.131496 0.102003 0.028104 -0.020253 0.054027 0.135676 0.004205 -0.049569 -0.091679 -0.002141 0.033020 -0.000492 -0.072907 -0.246154 -0.226612 -0.140351 0.125753 0.041426 -0.198427 -0.271413 -0.191506 0.282225 0.147388 0.012119 0.039081 0.025346 0.158134 0.081945 -0.082739 -0.023207 0.017948 0.109098 0.021363 -0.214200 -0.149580 0.002710 0.114793 -0.076158 -0.309714 -0.251535 0.025328 0.120307 -0.020573 -0.308290 -0.265080 0.087811 -0.055173 -0.028370 -0.031954 -0.025627 -0.066737 -0.050506 -0.006795 -0.022015 -0.004088 -0.035464 -0.050750 -0.007573 -0.002603 -0.018075 -0.045097 0.040637 -0.005773 0.006915 0.003035 -0.064192 -0.011137 -0.028753 -0.019348 -0.042475 -0.065730 0.158050 0.084929 0.112761 0.109865 0.194085 0.023467 0.002774 0.025317 0.004891 0.060278 0.007962 -0.077498 -0.056290 -0.075458 -0.022447 -0.086802 -0.182439 -0.125429 -0.174524 -0.168248 -0.073569 -0.156590 -0.084633 -0.125814 -0.087412 -0.096691 -0.099778 -0.093461 -0.092236 -0.071804 -0.091044 -0.084226 -0.079472 -0.070644 -0.075483 -0.071726 -0.062970 -0.078054 -0.049463 -0.050868 -0.063411 -0.055933 -0.059787 -0.044955 -0.039627 -0.068667 -0.051769 -0.059417 -0.040345 -0.031455 0.059404 -0.037754 -0.165705 -0.237086 -0.171553 0.040039 -0.003108 -0.176398 -0.275005 -0.259438 0.058503 0.031760 0.019737 -0.057947 0.052844 0.054318 0.022846 0.019297 0.049081 0.060780 0.051243 0.005977 -0.050012 0.013773 0.065121 -0.115085 -0.048268 -0.004160 0.055392 0.074591 -0.090412 -0.053106 -0.017204 0.043065 0.021923 -0.075580 -0.051407 -0.027540 0.006716 -0.000238 -0.077916 -0.058970 -0.041732 -0.038075 -0.057556 -0.091158 -0.079813 -0.059975 -0.083614 -0.1
0.032385 0.052770 0.061457 0.083865 0.081023 0.041001 0.060293 0.079364 0.091129 0.077356 0.053730 0.058007 0.082310 0.091410 0.082935 0.044219 0.044308 0.080521 0.084257 0.067453 0.018404 0.040595 0.060547 0.072591 0.049977 0.124885 0.110730 0.003504 -0.064293 -0.135626 0.180673 0.198996 0.057868 -0.033168 -0.109368 0.129890 0.150027 0.080745 -0.132815 -0.145130 0.106084 0.157571 0.103087 -0.115805 -0.203707 -0.020989 0.109791 0.028700 -0.171317 -0.252993 0.108088 0.122254 0.123575 0.082123 0.042077 0.089186 0.090925 0.083046 0.071696 0.005297 0.081594 0.088919 0.081456 0.041381 -0.054609 0.075809 0.081979 0.026835 -0.034427 -0.076252 0.045812 0.044910 0.019769 -0.053741 -0.092469 -0.209758 -0.199091 0.031987 0.138259 0.096050 -0.243015 -0.243401 0.012042 0.108293 0.073414 -0.122592 -0.167639 0.038746 0.114898 0.101728 -0.099545 -0.069520 0.073123 0.175914 0.123520 -0.149388 -0.085468 0.088405 0.196218 0.096924 -0.088135 -0.111903 -0.212297 -0.275455 -0.130466 -0.002547 0.009003 -0.139648 -0.336900 -0.127164 0.035539 0.069791 -0.014136 -0.172282 -0.030627 0.158024 0.155745 -0.000648 -0.204443 -0.021707 0.184143 0.095175 -0.028635 -0.177262 -0.094152 0.130307 0.070910 -0.020176 -0.079097 -0.124782 0.114169 0.065551 0.018889 -0.036710 -0.075798 0.141760 0.120939 0.011771 -0.089034 -0.156719 0.148768 0.101759 -0.009516 -0.082322 -0.110736 0.191806 0.128699 0.058856 -0.032444 -0.044632 -0.144094 -0.125137 -0.103848 -0.110898 -0.107821 -0.132229 -0.124281 -0.096262 -0.088580 -0.095841 -0.132616 -0.115110 -0.103253 -0.088281 -0.097236 -0.139467 -0.113945 -0.092189 -0.098200 -0.089689 -0.148055 -0.119762 -0.097290 -0.088205 -0.093397 -0.018714 0.057103 0.112359 0.166577 0.176100 -0.098156 -0.043075 -0.003863 0.091572 0.144623 -0.162909 -0.123121 -0.039903 0.087122 0.084986 -0.214936 -0.165033 -0.090569 0.036855 0.061105 -0.190959 -0.221185 -0.113844 0.034825 0.092648 0.041639 0.014071 0.120443 0.169594 0.216306 0.032402 -0.024410 0.101158 0.114685 0.085586 0.002287 -0.095699 -0.051416 -0.039532 -0.013838 0.006885 -0.174118 -0.199263 -0.204865 -0.108428 0.149634 0.061966 -0.048422 -0.186867 -0.103768 -0.055682 -0.053695 -0.063236 -0.057252 -0.077042 -0.065931 -0.079671 -0.072124 -0.057656 -0.125896 -0.056514 -0.078921 -0.070822 -0.083587 -0.044098 -0.076789 -0.058956 -0.080969 -0.022081 0.031178 -0.073326 -0.074204 -0.027877 0.047164 0.114156 -0.137143 -0.102011 -0.104963 -0.097689 0.046635 -0.059997 -0.175506 -0.149732 -0.015901 0.081562 0.054860 0.039943 0.037339 0.040655 -0.015305 0.071559 0.143499 0.175930 0.071581 -0.028407 0.166184 0.156875 0.101172 -0.026864 -0.047132 0.122057 0.065236 0.009955 0.162705 0.205785 0.048898 -0.029221 -0.097340 0.040669 0.110043 0.019488 -0.012737 -0.162375 -0.099228 0.041401 0.039911 -0.077559 -0.251957 -0.243246 -0.152747 0.145738 0.037298 -0.180891 -0.204853 -0.144977 0.066364 0.002333 -0.008835 -0.059201 -0.008828 -0.105744 -0.089036 -0.057267 -0.053390 -0.021960 -0.084774 -0.120549 -0.062034 -0.058973 -0.023169 0.023656 -0.122037 -0.049040 -0.025351 0.013335 0.079209 -0.057509 -0.071428 -0.055331 -0.024117 -0.133308 -0.080075 0.037150 0.059055 -0.005370 -0.176892 -0.100219 0.053830 0.093117 0.025866 -0.157961 -0.076389 0.137840 0.158780 0.134907 -0.236656 -0.127674 0.076039 0.174658 0.214328 -0.247875 -0.134474 0.025556 0.127153 0.162239 -0.024326 0.146577 0.114643 0.061802 -0.102724 -0.077159 0.102656 0.053382 -0.033483 -0.178002 -0.160002 -0.010682 -0.028408 -0.139638 -0.120967 -0.182251 -0.004090 0.020378 0.000849 0.055365 -0.147226 -0.004835 0.056047 0.034082 0.127203 0.124973 0.077506 0.104148 0.153468 0.125622 0.059668 0.018910 -0.032849 0.045389 0.011626 -0.003437 -0.051445 -0.090821 -0.022352 -0.057620 0.041560 -0.079398 -0.106327 -0.098789 -0.132907 0.047679 -0.019964 -0.099289 -0.146332 -0.138595 0.170056 0.036964 -0.028389 -0.083517 -0.145059 0.086941 -0.001438 -0.033295 -0.077017 -0.148012 0.166369 0.053554 -0.032098 -0.106484 -0.153692 0.184058 0.046695 -0.018693 -0.083748 -0.064380 0.201764 0.073865 0.005888 -0.034149 -0.095275 -0.047571 -0.194176 -0.242107 -0.144062
-0.063890 -0.009316 -0.240215 -0.290906 -0.234811 -0.040876 0.081484 -0.020078 -0.134238 -0.109104 0.096145 0.076948 0.057673 -0.055333 0.006789 0.082695 0.120664 -0.027275 -0.069972 -0.017233 0.121597 -0.336174 -0.234046 0.024794 0.000168 -0.067042 -0.294990 -0.190835 0.043546 0.017106 -0.014657 -0.104160 0.006668 0.134772 0.088073 0.031810 -0.131407 -0.008210 0.185998 0.213261 0.056374 -0.108946 -0.067064 0.158785 0.213162 0.047681 -0.063637 -0.043364 -0.059111 -0.053233 -0.083126 -0.064230 -0.053357 -0.053732 -0.044596 -0.073700 -0.057712 -0.042353 -0.053783 -0.034603 -0.081208 -0.051543 -0.045060 -0.046874 -0.039139 -0.073088 -0.066412 -0.033681 -0.046016 -0.055343 -0.078942 0.226631 0.099724 -0.057207 -0.055602 0.156330 0.083183 0.001722 -0.218128 -0.231509 0.047080 0.161149 -0.012854 -0.232701 -0.220100 0.092338 0.249512 0.085801 -0.172004 -0.125985 0.131585 0.180125 0.004804 -0.149559 -0.026364 0.312695 0.199365 0.059435 0.084177 0.155796 0.175776 -0.006097 -0.110039 -0.046604 0.066469 0.117799 -0.079542 -0.142909 -0.082894 0.058105 0.122813 -0.094968 -0.150844 -0.059623 0.099277 0.138134 -0.058929 -0.050440 -0.042553 0.100726 0.228716 0.136382 0.050972 0.052420 0.046193 0.081575 0.073900 0.026724 0.043843 0.028063 0.040985 0.064964 0.011553 0.018694 0.005625 0.038833 0.065219 0.007845 0.018241 0.010743 0.029543 0.075013 0.009992 0.018532 0.006286 -0.002972 -0.150572 -0.144667 -0.135182 -0.004587 0.094297 -0.035100 -0.231949 -0.194587 -0.052564 0.027247 0.030729 -0.102063 -0.108150 -0.045860 0.024205 0.088307 -0.105223 -0.063746 0.073607 0.144357 0.100781 -0.127584 -0.070877 0.069327 0.159997 -0.223256 -0.204140 0.018030 0.187315 0.051391 -0.146618 -0.166183 0.015597 0.182486 0.097954 -0.193913 -0.156586 0.023084 0.207065 0.053252 -0.181463 -0.161861 0.028680 0.190993 0.052535 -0.164502 -0.205104 -0.022517 0.166228 0.033905 -0.173679 -0.155801 -0.164572 -0.112243 -0.068924 -0.045834 -0.121458 -0.151229 -0.050166 -0.009894 0.018674 -0.047171 -0.043339 0.001614 -0.003393 0.014615 -0.054750 0.002406 -0.009959 0.033924 0.081394 0.021823 0.050228 0.051673 0.132092 0.222318 0.174676 0.137019 0.109746 0.140836 0.217584 0.190265 0.104487 -0.016545 0.027934 -0.020014 0.055739 0.077013 -0.035982 0.031108 -0.042650 -0.048772 0.004917 -0.084479 -0.114054 -0.077103 -0.058815 -0.040037 -0.157062 -0.151691 0.121349 -0.003305 -0.104648 -0.157121 -0.105728 0.102433 0.073535 -0.163275 -0.237890 -0.087674 0.213873 0.154084 -0.132875 -0.227235 0.059461 0.218186 0.167579 -0.052049 -0.181865 0.113839 0.290471 0.175450 -0.013075 -0.117272 0.224313 0.099348 0.056228 -0.027629 -0.209204 -0.196080 0.043319 0.089355 0.017969 -0.208953 -0.260824 0.033635 0.127292 0.105093 -0.189609 -0.178184 0.092673 0.155535 0.127046 -0.186911 -0.123700 0.182412 0.262800 0.155226 -0.144496 -0.176652 -0.155953 -0.156544 -0.163941 -0.183358 -0.166649 -0.143537 -0.153039 -0.161237 -0.177241 -0.170502 -0.137346 -0.146790 -0.155834 -0.159414 -0.163697 -0.128303 -0.141763 -0.144575 -0.157679 -0.159177 -0.113631 -0.130133 -0.132584 -0.131577 -0.151336 0.095877 -0.127078 -0.131582 0.004588 0.080044 -0.069676 -0.281472 -0.235703 0.032659 0.030036 -0.139662 -0.296721 -0.170241 0.070449 0.073046 0.013484 -0.240332 -0.018617 0.121260 0.074365 0.138741 -0.112982 -0.023415 0.139936 0.089199 0.072565 0.036335 0.041038 0.036470 0.062076 0.053822 0.025445 0.022304 0.033179 0.069229 0.042620 0.016597 0.035708 0.031476 0.059654 0.044717 0.024583 0.033803 0.017487 0.049190 0.068612 0.014342 0.013029 0.011001 0.040527 0.099878 0.107692 0.127669 0.155502 0.162617 0.061186 0.086224 0.099966 0.127547 0.140815 0.061828 0.079211 0.096646 0.131755 0.147636 0.063498 0.095639 0.098175 0.134794 0.156801 0.074194 0.096213 0.131620 0.13662 0.14012
-0.054840 -0.043686 -0.039770 -0.024295 -0.058293 -0.056322 -0.039457 -0.026149 -0.009713 -0.056989 -0.047978 -0.022033 -0.017463 -0.002259 -0.037985 -0.038680 -0.015593 -0.019118 0.004887 -0.032659 -0.046319 -0.016668 -0.007809 -0.006058 -0.011435 0.156753 0.200448 0.106461 0.054861 0.084063 0.150981 0.151516 0.020704 -0.034002 -0.070643 0.054831 0.026022 -0.052659 -0.106127 -0.089149 0.053536 0.062037 -0.056970 -0.119808 -0.078115 0.078318 0.014883 -0.000209 -0.069299 -0.128173 -0.064778 -0.099686 -0.054123 -0.075099 -0.062980 -0.081338 -0.107975 -0.071310 -0.063852 -0.043719 -0.000079 -0.107802 -0.060511 -0.057669 -0.055412 0.026229 -0.066730 -0.068568 -0.026885 -0.052214 0.144512 0.033938 -0.081113 -0.069556 -0.057799 0.242806 0.079875 -0.017864 0.104591 0.235862 0.174685 0.038930 -0.094916 -0.033196 0.126770 0.158359 0.022321 -0.192253 -0.145296 0.027179 0.144814 0.022152 -0.177055 -0.213774 0.029301 0.185945 0.080998 -0.166113 -0.156784 0.161398 -0.092992 -0.149358 -0.169628 -0.137995 -0.156103 -0.004388 -0.072860 -0.222119 -0.281228 -0.162201 0.015384 -0.002858 -0.023196 -0.031212 0.004148 -0.002846 0.011673 0.048984 0.068124 0.084173 0.086279 -0.012349 0.076175 0.091920 0.087263 -0.053857 -0.051989 -0.057839 -0.049271 -0.038603 -0.064627 -0.066621 -0.071653 -0.062100 -0.054033 -0.065799 -0.068992 -0.078806 -0.067702 -0.059910 -0.073215 -0.058175 -0.071491 -0.055292 -0.056109 -0.062324 -0.063104 -0.052919 -0.064199 -0.067281 -0.143906 -0.169203 0.044038 0.038315 0.059658 -0.178665 -0.250648 -0.004546 0.037891 0.106734 -0.102178 -0.174992 0.053856 0.104764 0.121829 0.065890 -0.152018 0.104256 0.157554 0.148960 0.170098 -0.072052 0.064585 0.195024 0.169911 -0.063500 -0.035182 -0.044156 -0.043813 -0.064401 -0.037382 -0.022631 -0.045298 -0.037765 -0.068134 -0.029049 -0.018044 -0.047187 -0.021018 -0.059103 -0.041481 0.002019 -0.007667 0.007166 -0.068075 -0.045857 -0.031309 -0.016013 -0.026375 -0.065559 0.121272 0.090963 -0.043895 0.130699 0.169344 0.074525 0.031821 -0.184582 0.000069 0.105698 0.157396 0.016773 -0.226273 -0.097189 0.041833 0.126244 0.017876 -0.195755 -0.239750 -0.162374 0.166023 0.034624 -0.221878 -0.285695 -0.203183 0.118799 0.154575 0.168512 0.158253 -0.008286 0.016146 0.073277 0.117402 0.053318 -0.074680 -0.029334 0.006263 0.051746 -0.029374 -0.181683 -0.057560 -0.051817 -0.043739 -0.092157 -0.264643 -0.057603 -0.076628 -0.054932 -0.122415 -0.267065 0.107944 0.093278 0.083500 0.134273 0.131496 0.102003 0.028104 -0.020253 0.054027 0.135676 0.004205 -0.049569 -0.091679 -0.002141 0.033020 -0.000492 -0.072907 -0.246154 -0.226612 -0.140351 0.125753 0.041426 -0.198427 -0.271413 -0.191506 0.282225 0.147388 0.012119 0.039081 0.025346 0.158134 0.081945 -0.082739 -0.023207 0.017948 0.109098 0.021363 -0.214200 -0.149580 0.002710 0.114793 -0.076158 -0.309714 -0.251535 0.025328 0.120307 -0.020573 -0.308290 -0.265080 0.087811 -0.055173 -0.028370 -0.031954 -0.025627 -0.066737 -0.050506 -0.006795 -0.022015 -0.004088 -0.035464 -0.050750 -0.007573 -0.002603 -0.018075 -0.045097 0.040637 -0.005773 0.006915 0.003035 -0.064192 -0.011137 -0.028753 -0.019348 -0.042475 -0.065730 0.158050 0.084929 0.112761 0.109865 0.194085 0.023467 0.002774 0.025317 0.004891 0.060278 0.007962 -0.077498 -0.056290 -0.075458 -0.022447 -0.086802 -0.182439 -0.125429 -0.174524 -0.168248 -0.073569 -0.156590 -0.084633 -0.125814 -0.087412 -0.096691 -0.099778 -0.093461 -0.092236 -0.071804 -0.091044 -0.084226 -0.079472 -0.070644 -0.075483 -0.071726 -0.062970 -0.078054 -0.049463 -0.050868 -0.063411 -0.055933 -0.059787 -0.044955 -0.039627 -0.068667 -0.051769 -0.059417 -0.040345 -0.031455 0.059404 -0.037754 -0.165705 -0.237086 -0.171553 0.040039 -0.003108 -0.176398 -0.275005 -0.259438 0.058503 0.031760 0.019737 -0.057947 0.052844 0.054318 0.022846 0.019297 0.049081 0.060780 0.051243 0.005977 -0.050012 0.013773 0.065121 -0.115085 -0.048268 -0.004160 0.055392 0.074591 -0.090412 -0.053106 -0.017204 0.043065 0.021923 -0.075580 -0.051407 -0.027540 0.006716 -0.000238 -0.077916 -0.058970 -0.041732 -0.038075 -0.057556 -0.091158 -0.079813 -0.059975 -0.083614 -0.1
0.032385 0.052770 0.061457 0.083865 0.081023 0.041001 0.060293 0.079364 0.091129 0.077356 0.053730 0.058007 0.082310 0.091410 0.082935 0.044219 0.044308 0.080521 0.084257 0.067453 0.018404 0.040595 0.060547 0.072591 0.049977 0.124885 0.110730 0.003504 -0.064293 -0.135626 0.180673 0.198996 0.057868 -0.033168 -0.109368 0.129890 0.150027 0.080745 -0.132815 -0.145130 0.106084 0.157571 0.103087 -0.115805 -0.203707 -0.020989 0.109791 0.028700 -0.171317 -0.252993 0.108088 0.122254 0.123575 0.082123 0.042077 0.089186 0.090925 0.083046 0.071696 0.005297 0.081594 0.088919 0.081456 0.041381 -0.054609 0.075809 0.081979 0.026835 -0.034427 -0.076252 0.045812 0.044910 0.019769 -0.053741 -0.092469 -0.209758 -0.199091 0.031987 0.138259 0.096050 -0.243015 -0.243401 0.012042 0.108293 0.073414 -0.122592 -0.167639 0.038746 0.114898 0.101728 -0.099545 -0.069520 0.073123 0.175914 0.123520 -0.149388 -0.085468 0.088405 0.196218 0.096924 -0.088135 -0.111903 -0.212297 -0.275455 -0.130466 -0.002547 0.009003 -0.139648 -0.336900 -0.127164 0.035539 0.069791 -0.014136 -0.172282 -0.030627 0.158024 0.155745 -0.000648 -0.204443 -0.021707 0.184143 0.095175 -0.028635 -0.177262 -0.094152 0.130307 0.070910 -0.020176 -0.079097 -0.124782 0.114169 0.065551 0.018889 -0.036710 -0.075798 0.141760 0.120939 0.011771 -0.089034 -0.156719 0.148768 0.101759 -0.009516 -0.082322 -0.110736 0.191806 0.128699 0.058856 -0.032444 -0.044632 -0.144094 -0.125137 -0.103848 -0.110898 -0.107821 -0.132229 -0.124281 -0.096262 -0.088580 -0.095841 -0.132616 -0.115110 -0.103253 -0.088281 -0.097236 -0.139467 -0.113945 -0.092189 -0.098200 -0.089689 -0.148055 -0.119762 -0.097290 -0.088205 -0.093397 -0.018714 0.057103 0.112359 0.166577 0.176100 -0.098156 -0.043075 -0.003863 0.091572 0.144623 -0.162909 -0.123121 -0.039903 0.087122 0.084986 -0.214936 -0.165033 -0.090569 0.036855 0.061105 -0.190959 -0.221185 -0.113844 0.034825 0.092648 0.041639 0.014071 0.120443 0.169594 0.216306 0.032402 -0.024410 0.101158 0.114685 0.085586 0.002287 -0.095699 -0.051416 -0.039532 -0.013838 0.006885 -0.174118 -0.199263 -0.204865 -0.108428 0.149634 0.061966 -0.048422 -0.186867 -0.103768 -0.055682 -0.053695 -0.063236 -0.057252 -0.077042 -0.065931 -0.079671 -0.072124 -0.057656 -0.125896 -0.056514 -0.078921 -0.070822 -0.083587 -0.044098 -0.076789 -0.058956 -0.080969 -0.022081 0.031178 -0.073326 -0.074204 -0.027877 0.047164 0.114156 -0.137143 -0.102011 -0.104963 -0.097689 0.046635 -0.059997 -0.175506 -0.149732 -0.015901 0.081562 0.054860 0.039943 0.037339 0.040655 -0.015305 0.071559 0.143499 0.175930 0.071581 -0.028407 0.166184 0.156875 0.101172 -0.026864 -0.047132 0.122057 0.065236 0.009955 0.162705 0.205785 0.048898 -0.029221 -0.097340 0.040669 0.110043 0.019488 -0.012737 -0.162375 -0.099228 0.041401 0.039911 -0.077559 -0.251957 -0.243246 -0.152747 0.145738 0.037298 -0.180891 -0.204853 -0.144977 0.066364 0.002333 -0.008835 -0.059201 -0.008828 -0.105744 -0.089036 -0.057267 -0.053390 -0.021960 -0.084774 -0.120549 -0.062034 -0.058973 -0.023169 0.023656 -0.122037 -0.049040 -0.025351 0.013335 0.079209 -0.057509 -0.071428 -0.055331 -0.024117 -0.133308 -0.080075 0.037150 0.059055 -0.005370 -0.176892 -0.100219 0.053830 0.093117 0.025866 -0.157961 -0.076389 0.137840 0.158780 0.134907 -0.236656 -0.127674 0.076039 0.174658 0.214328 -0.247875 -0.134474 0.025556 0.127153 0.162239 -0.024326 0.146577 0.114643 0.061802 -0.102724 -0.077159 0.102656 0.053382 -0.033483 -0.178002 -0.160002 -0.010682 -0.028408 -0.139638 -0.120967 -0.182251 -0.004090 0.020378 0.000849 0.055365 -0.147226 -0.004835 0.056047 0.034082 0.127203 0.124973 0.077506 0.104148 0.153468 0.125622 0.059668 0.018910 -0.032849 0.045389 0.011626 -0.003437 -0.051445 -0.090821 -0.022352 -0.057620 0.041560 -0.079398 -0.106327 -0.098789 -0.132907 0.047679 -0.019964 -0.099289 -0.146332 -0.138595 0.170056 0.036964 -0.028389 -0.083517 -0.145059 0.086941 -0.001438 -0.033295 -0.077017 -0.148012 0.166369 0.053554 -0.032098 -0.106484 -0.153692 0.184058 0.046695 -0.018693 -0.083748 -0.064380 0.201764 0.073865 0.005888 -0.034149 -0.095275 -0.047571 -0.194176 -0.242107 -0.144062
-0.063890 -0.009316 -0.240215 -0.290906 -0.234811 -0.040876 0.081484 -0.020078 -0.134238 -0.109104 0.096145 0.076948 0.057673 -0.055333 0.006789 0.082695 0.120664 -0.027275 -0.069972 -0.017233 0.121597 -0.336174 -0.234046 0.024794 0.000168 -0.067042 -0.294990 -0.190835 0.043546 0.017106 -0.014657 -0.104160 0.006668 0.134772 0.088073 0.031810 -0.131407 -0.008210 0.185998 0.213261 0.056374 -0.108946 -0.067064 0.158785 0.213162 0.047681 -0.063637 -0.043364 -0.059111 -0.053233 -0.083126 -0.064230 -0.053357 -0.053732 -0.044596 -0.073700 -0.057712 -0.042353 -0.053783 -0.034603 -0.081208 -0.051543 -0.045060 -0.046874 -0.039139 -0.073088 -0.066412 -0.033681 -0.046016 -0.055343 -0.078942 0.226631 0.099724 -0.057207 -0.055602 0.156330 0.083183 0.001722 -0.218128 -0.231509 0.047080 0.161149 -0.012854 -0.232701 -0.220100 0.092338 0.249512 0.085801 -0.172004 -0.125985 0.131585 0.180125 0.004804 -0.149559 -0.026364 0.312695 0.199365 0.059435 0.084177 0.155796 0.175776 -0.006097 -0.110039 -0.046604 0.066469 0.117799 -0.079542 -0.142909 -0.082894 0.058105 0.122813 -0.094968 -0.150844 -0.059623 0.099277 0.138134 -0.058929 -0.050440 -0.042553 0.100726 0.228716 0.136382 0.050972 0.052420 0.046193 0.081575 0.073900 0.026724 0.043843 0.028063 0.040985 0.064964 0.011553 0.018694 0.005625 0.038833 0.065219 0.007845 0.018241 0.010743 0.029543 0.075013 0.009992 0.018532 0.006286 -0.002972 -0.150572 -0.144667 -0.135182 -0.004587 0.094297 -0.035100 -0.231949 -0.194587 -0.052564 0.027247 0.030729 -0.102063 -0.108150 -0.045860 0.024205 0.088307 -0.105223 -0.063746 0.073607 0.144357 0.100781 -0.127584 -0.070877 0.069327 0.159997 -0.223256 -0.204140 0.018030 0.187315 0.051391 -0.146618 -0.166183 0.015597 0.182486 0.097954 -0.193913 -0.156586 0.023084 0.207065 0.053252 -0.181463 -0.161861 0.028680 0.190993 0.052535 -0.164502 -0.205104 -0.022517 0.166228 0.033905 -0.173679 -0.155801 -0.164572 -0.112243 -0.068924 -0.045834 -0.121458 -0.151229 -0.050166 -0.009894 0.018674 -0.047171 -0.043339 0.001614 -0.003393 0.014615 -0.054750 0.002406 -0.009959 0.033924 0.081394 0.021823 0.050228 0.051673 0.132092 0.222318 0.174676 0.137019 0.109746 0.140836 0.217584 0.190265 0.104487 -0.016545 0.027934 -0.020014 0.055739 0.077013 -0.035982 0.031108 -0.042650 -0.048772 0.004917 -0.084479 -0.114054 -0.077103 -0.058815 -0.040037 -0.157062 -0.151691 0.121349 -0.003305 -0.104648 -0.157121 -0.105728 0.102433 0.073535 -0.163275 -0.237890 -0.087674 0.213873 0.154084 -0.132875 -0.227235 0.059461 0.218186 0.167579 -0.052049 -0.181865 0.113839 0.290471 0.175450 -0.013075 -0.117272 0.224313 0.099348 0.056228 -0.027629 -0.209204 -0.196080 0.043319 0.089355 0.017969 -0.208953 -0.260824 0.033635 0.127292 0.105093 -0.189609 -0.178184 0.092673 0.155535 0.127046 -0.186911 -0.123700 0.182412 0.262800 0.155226 -0.144496 -0.176652 -0.155953 -0.156544 -0.163941 -0.183358 -0.166649 -0.143537 -0.153039 -0.161237 -0.177241 -0.170502 -0.137346 -0.146790 -0.155834 -0.159414 -0.163697 -0.128303 -0.141763 -0.144575 -0.157679 -0.159177 -0.113631 -0.130133 -0.132584 -0.131577 -0.151336 0.095877 -0.127078 -0.131582 0.004588 0.080044 -0.069676 -0.281472 -0.235703 0.032659 0.030036 -0.139662 -0.296721 -0.170241 0.070449 0.073046 0.013484 -0.240332 -0.018617 0.121260 0.074365 0.138741 -0.112982 -0.023415 0.139936 0.089199 0.072565 0.036335 0.041038 0.036470 0.062076 0.053822 0.025445 0.022304 0.033179 0.069229 0.042620 0.016597 0.035708 0.031476 0.059654 0.044717 0.024583 0.033803 0.017487 0.049190 0.068612 0.014342 0.013029 0.011001 0.040527 0.099878 0.107692 0.127669 0.155502 0.162617 0.061186 0.086224 0.099966 0.127547 0.140815 0.061828 0.079211 0.096646 0.131755 0.147636 0.063498 0.095639 0.098175 0.134794 0.156801 0.074194 0.096213 0.131620 0.13662 0.14012
-0.054840 -0.043686 -0.039770 -0.024295 -0.058293 -0.056322 -0.039457 -0.026149 -0.009713 -0.056989 -0.047978 -0.022033 -0.017463 -0.002259 -0.037985 -0.038680 -0.015593 -0.019118 0.004887 -0.032659 -0.046319 -0.016668 -0.007809 -0.006058 -0.011435 0.156753 0.200448 0.106461 0.054861 0.084063 0.150981 0.151516 0.020704 -0.034002 -0.070643 0.054831 0.026022 -0.052659 -0.106127 -0.089149 0.053536 0.062037 -0.056970 -0.119808 -0.078115 0.078318 0.014883 -0.000209 -0.069299 -0.128173 -0.064778 -0.099686 -0.054123 -0.075099 -0.062980 -0.081338 -0.107975 -0.071310 -0.063852 -0.043719 -0.000079 -0.107802 -0.060511 -0.057669 -0.055412 0.026229 -0.066730 -0.068568 -0.026885 -0.052214 0.144512 0.033938 -0.081113 -0.069556 -0.057799 0.242806 0.079875 -0.017864 0.104591 0.235862 0.174685 0.038930 -0.094916 -0.033196 0.126770 0.158359 0.022321 -0.192253 -0.145296 0.027179 0.144814 0.022152 -0.177055 -0.213774 0.029301 0.185945 0.080998 -0.166113 -0.156784 0.161398 -0.092992 -0.149358 -0.169628 -0.137995 -0.156103 -0.004388 -0.072860 -0.222119 -0.281228 -0.162201 0.015384 -0.002858 -0.023196 -0.031212 0.004148 -0.002846 0.011673 0.048984 0.068124 0.084173 0.086279 -0.012349 0.076175 0.091920 0.087263 -0.053857 -0.051989 -0.057839 -0.049271 -0.038603 -0.064627 -0.066621 -0.071653 -0.062100 -0.054033 -0.065799 -0.068992 -0.078806 -0.067702 -0.059910 -0.073215 -0.058175 -0.071491 -0.055292 -0.056109 -0.062324 -0.063104 -0.052919 -0.064199 -0.067281 -0.143906 -0.169203 0.044038 0.038315 0.059658 -0.178665 -0.250648 -0.004546 0.037891 0.106734 -0.102178 -0.174992 0.053856 0.104764 0.121829 0.065890 -0.152018 0.104256 0.157554 0.148960 0.170098 -0.072052 0.064585 0.195024 0.169911 -0.063500 -0.035182 -0.044156 -0.043813 -0.064401 -0.037382 -0.022631 -0.045298 -0.037765 -0.068134 -0.029049 -0.018044 -0.047187 -0.021018 -0.059103 -0.041481 0.002019 -0.007667 0.007166 -0.068075 -0.045857 -0.031309 -0.016013 -0.026375 -0.065559 0.121272 0.090963 -0.043895 0.130699 0.169344 0.074525 0.031821 -0.184582 0.000069 0.105698 0.157396 0.016773 -0.226273 -0.097189 0.041833 0.126244 0.017876 -0.195755 -0.239750 -0.162374 0.166023 0.034624 -0.221878 -0.285695 -0.203183 0.118799 0.154575 0.168512 0.158253 -0.008286 0.016146 0.073277 0.117402 0.053318 -0.074680 -0.029334 0.006263 0.051746 -0.029374 -0.181683 -0.057560 -0.051817 -0.043739 -0.092157 -0.264643 -0.057603 -0.076628 -0.054932 -0.122415 -0.267065 0.107944 0.093278 0.083500 0.134273 0.131496 0.102003 0.028104 -0.020253 0.054027 0.135676 0.004205 -0.049569 -0.091679 -0.002141 0.033020 -0.000492 -0.072907 -0.246154 -0.226612 -0.140351 0.125753 0.041426 -0.198427 -0.271413 -0.191506 0.282225 0.147388 0.012119 0.039081 0.025346 0.158134 0.081945 -0.082739 -0.023207 0.017948 0.109098 0.021363 -0.214200 -0.149580 0.002710 0.114793 -0.076158 -0.309714 -0.251535 0.025328 0.120307 -0.020573 -0.308290 -0.265080 0.087811 -0.055173 -0.028370 -0.031954 -0.025627 -0.066737 -0.050506 -0.006795 -0.022015 -0.004088 -0.035464 -0.050750 -0.007573 -0.002603 -0.018075 -0.045097 0.040637 -0.005773 0.006915 0.003035 -0.064192 -0.011137 -0.028753 -0.019348 -0.042475 -0.065730 0.158050 0.084929 0.112761 0.109865 0.194085 0.023467 0.002774 0.025317 0.004891 0.060278 0.007962 -0.077498 -0.056290 -0.075458 -0.022447 -0.086802 -0.182439 -0.125429 -0.174524 -0.168248 -0.073569 -0.156590 -0.084633 -0.125814 -0.087412 -0.096691 -0.099778 -0.093461 -0.092236 -0.071804 -0.091044 -0.084226 -0.079472 -0.070644 -0.075483 -0.071726 -0.062970 -0.078054 -0.049463 -0.050868 -0.063411 -0.055933 -0.059787 -0.044955 -0.039627 -0.068667 -0.051769 -0.059417 -0.040345 -0.031455 0.059404 -0.037754 -0.165705 -0.237086 -0.171553 0.040039 -0.003108 -0.176398 -0.275005 -0.259438 0.058503 0.031760 0.019737 -0.057947 0.052844 0.054318 0.022846 0.019297 0.049081 0.060780 0.051243 0.005977 -0.050012 0.013773 0.065121 -0.115085 -0.048268 -0.004160 0.055392 0.074591 -0.090412 -0.053106 -0.017204 0.043065 0.021923 -0.075580 -0.051407 -0.027540 0.006716 -0.000238 -0.077916 -0.058970 -0.041732 -0.038075 -0.057556 -0.091158 -0.079813 -0.059975 -0.083614 -0.1
0.032385 0.052770 0.061457 0.083865 0.081023 0.041001 0.060293 0.079364 0.091129 0.077356 0.053730 0.058007 0.082310 0.091410 0.082935 0.044219 0.044308 0.080521 0.084257 0.067453 0.018404 0.040595 0.060547 0.072591 0.049977 0.124885 0.110730 0.003504 -0.064293 -0.135626 0.180673 0.198996 0.057868 -0.033168 -0.109368 0.129890 0.150027 0.080745 -0.132815 -0.145130 0.106084 0.157571 0.103087 -0.115805 -0.203707 -0.020989 0.109791 0.028700 -0.171317 -0.252993 0.108088 0.122254 0.123575 0.082123 0.042077 0.089186 0.090925 0.083046 0.071696 0.005297 0.081594 0.088919 0.081456 0.041381 -0.054609 0.075809 0.081979 0.026835 -0.034427 -0.076252 0.045812 0.044910 0.019769 -0.053741 -0.092469 -0.209758 -0.199091 0.031987 0.138259 0.096050 -0.243015 -0.243401 0.012042 0.108293 0.073414 -0.122592 -0.167639 0.038746 0.114898 0.101728 -0.099545 -0.069520 0.073123 0.175914 0.123520 -0.149388 -0.085468 0.088405 0.196218 0.096924 -0.088135 -0.111903 -0.212297 -0.275455 -0.130466 -0.002547 0.009003 -0.139648 -0.336900 -0.127164 0.035539 0.069791 -0.014136 -0.172282 -0.030627 0.158024 0.155745 -0.000648 -0.204443 -0.021707 0.184143 0.095175 -0.028635 -0.177262 -0.094152 0.130307 0.070910 -0.020176 -0.079097 -0.124782 0.114169 0.065551 0.018889 -0.036710 -0.075798 0.141760 0.120939 0.011771 -0.089034 -0.156719 0.148768 0.101759 -0.009516 -0.082322 -0.110736 0.191806 0.128699 0.058856 -0.032444 -0.044632 -0.144094 -0.125137 -0.103848 -0.110898 -0.107821 -0.132229 -0.124281 -0.096262 -0.088580 -0.095841 -0.132616 -0.115110 -0.103253 -0.088281 -0.097236 -0.139467 -0.113945 -0.092189 -0.098200 -0.089689 -0.148055 -0.119762 -0.097290 -0.088205 -0.093397 -0.018714 0.057103 0.112359 0.166577 0.176100 -0.098156 -0.043075 -0.003863 0.091572 0.144623 -0.162909 -0.123121 -0.039903 0.087122 0.084986 -0.214936 -0.165033 -0.090569 0.036855 0.061105 -0.190959 -0.221185 -0.113844 0.034825 0.092648 0.041639 0.014071 0.120443 0.169594 0.216306 0.032402 -0.024410 0.101158 0.114685 0.085586 0.002287 -0.095699 -0.051416 -0.039532 -0.013838 0.006885 -0.174118 -0.199263 -0.204865 -0.108428 0.149634 0.061966 -0.048422 -0.186867 -0.103768 -0.055682 -0.053695 -0.063236 -0.057252 -0.077042 -0.065931 -0.079671 -0.072124 -0.057656 -0.125896 -0.056514 -0.078921 -0.070822 -0.083587 -0.044098 -0.076789 -0.058956 -0.080969 -0.022081 0.031178 -0.073326 -0.074204 -0.027877 0.047164 0.114156 -0.137143 -0.102011 -0.104963 -0.097689 0.046635 -0.059997 -0.175506 -0.149732 -0.015901 0.081562 0.054860 0.039943 0.037339 0.040655 -0.015305 0.071559 0.143499 0.175930 0.071581 -0.028407 0.166184 0.156875 0.101172 -0.026864 -0.047132 0.122057 0.065236 0.009955 0.162705 0.205785 0.048898 -0.029221 -0.097340 0.040669 0.110043 0.019488 -0.012737 -0.162375 -0.099228 0.041401 0.039911 -0.077559 -0.251957 -0.243246 -0.152747 0.145738 0.037298 -0.180891 -0.204853 -0.144977 0.066364 0.002333 -0.008835 -0.059201 -0.008828 -0.105744 -0.089036 -0.057267 -0.053390 -0.021960 -0.084774 -0.120549 -0.062034 -0.058973 -0.023169 0.023656 -0.122037 -0.049040 -0.025351 0.013335 0.079209 -0.057509 -0.071428 -0.055331 -0.024117 -0.133308 -0.080075 0.037150 0.059055 -0.005370 -0.176892 -0.100219 0.053830 0.093117 0.025866 -0.157961 -0.076389 0.137840 0.158780 0.134907 -0.236656 -0.127674 0.076039 0.174658 0.214328 -0.247875 -0.134474 0.025556 0.127153 0.162239 -0.024326 0.146577 0.114643 0.061802 -0.102724 -0.077159 0.102656 0.053382 -0.033483 -0.178002 -0.160002 -0.010682 -0.028408 -0.139638 -0.120967 -0.182251 -0.004090 0.020378 0.000849 0.055365 -0.147226 -0.004835 0.056047 0.034082 0.127203 0.124973 0.077506 0.104148 0.153468 0.125622 0.059668 0.018910 -0.032849 0.045389 0.011626 -0.003437 -0.051445 -0.090821 -0.022352 -0.057620 0.041560 -0.079398 -0.106327 -0.098789 -0.132907 0.047679 -0.019964 -0.099289 -0.146332 -0.138595 0.170056 0.036964 -0.028389 -0.083517 -0.145059 0.086941 -0.001438 -0.033295 -0.077017 -0.148012 0.166369 0.053554 -0.032098 -0.106484 -0.153692 0.184058 0.046695 -0.018693 -0.083748 -0.064380 0.201764 0.073865 0.005888 -0.034149 -0.095275 -0.047571 -0.194176 -0.242107 -0.144062
-0.063890 -0.009316 -0.240215 -0.290906 -0.234811 -0.040876 0.081484 -0.020078 -0.134238 -0.109104 0.096145 0.076948 0.057673 -0.055333 0.006789 0.082695 0.120664 -0.027275 -0.069972 -0.017233 0.121597 -0.336174 -0.234046 0.024794 0.000168 -0.067042 -0.294990 -0.190835 0.043546 0.017106 -0.014657 -0.104160 0.006668 0.134772 0.088073 0.031810 -0.131407 -0.008210 0.185998 0.213261 0.056374 -0.108946 -0.067064 0.158785 0.213162 0.047681 -0.063637 -0.043364 -0.059111 -0.053233 -0.083126 -0.064230 -0.053357 -0.053732 -0.044596 -0.073700 -0.057712 -0.042353 -0.053783 -0.034603 -0.081208 -0.051543 -0.045060 -0.046874 -0.039139 -0.073088 -0.066412 -0.033681 -0.046016 -0.055343 -0.078942 0.226631 0.099724 -0.057207 -0.055602 0.156330 0.083183 0.001722 -0.218128 -0.231509 0.047080 0.161149 -0.012854 -0.232701 -0.220100 0.092338 0.249512 0.085801 -0.172004 -0.125985 0.131585 0.180125 0.004804 -0.149559 -0.026364 0.312695 0.199365 0.059435 0.084177 0.155796 0.175776 -0.006097 -0.110039 -0.046604 0.066469 0.117799 -0.079542 -0.142909 -0.082894 0.058105 0.122813 -0.094968 -0.150844 -0.059623 0.099277 0.138134 -0.058929 -0.050440 -0.042553 0.100726 0.228716 0.136382 0.050972 0.052420 0.046193 0.081575 0.073900 0.026724 0.043843 0.028063 0.040985 0.064964 0.011553 0.018694 0.005625 0.038833 0.065219 0.007845 0.018241 0.010743 0.029543 0.075013 0.009992 0.018532 0.006286 -0.002972 -0.150572 -0.144667 -0.135182 -0.004587 0.094297 -0.035100 -0.231949 -0.194587 -0.052564 0.027247 0.030729 -0.102063 -0.108150 -0.045860 0.024205 0.088307 -0.105223 -0.063746 0.073607 0.144357 0.100781 -0.127584 -0.070877 0.069327 0.159997 -0.223256 -0.204140 0.018030 0.187315 0.051391 -0.146618 -0.166183 0.015597 0.182486 0.097954 -0.193913 -0.156586 0.023084 0.207065 0.053252 -0.181463 -0.161861 0.028680 0.190993 0.052535 -0.164502 -0.205104 -0.022517 0.166228 0.033905 -0.173679 -0.155801 -0.164572 -0.112243 -0.068924 -0.045834 -0.121458 -0.151229 -0.050166 -0.009894 0.018674 -0.047171 -0.043339 0.001614 -0.003393 0.014615 -0.054750 0.002406 -0.009959 0.033924 0.081394 0.021823 0.050228 0.051673 0.132092 0.222318 0.174676 0.137019 0.109746 0.140836 0.217584 0.190265 0.104487 -0.016545 0.027934 -0.020014 0.055739 0.077013 -0.035982 0.031108 -0.042650 -0.048772 0.004917 -0.084479 -0.114054 -0.077103 -0.058815 -0.040037 -0.157062 -0.151691 0.121349 -0.003305 -0.104648 -0.157121 -0.105728 0.102433 0.073535 -0.163275 -0.237890 -0.087674 0.213873 0.154084 -0.132875 -0.227235 0.059461 0.218186 0.167579 -0.052049 -0.181865 0.113839 0.290471 0.175450 -0.013075 -0.117272 0.224313 0.099348 0.056228 -0.027629 -0.209204 -0.196080 0.043319 0.089355 0.017969 -0.208953 -0.260824 0.033635 0.127292 0.105093 -0.189609 -0.178184 0.092673 0.155535 0.127046 -0.186911 -0.123700 0.182412 0.262800 0.155226 -0.144496 -0.176652 -0.155953 -0.156544 -0.163941 -0.183358 -0.166649 -0.143537 -0.153039 -0.161237 -0.177241 -0.170502 -0.137346 -0.146790 -0.155834 -0.159414 -0.163697 -0.128303 -0.141763 -0.144575 -0.157679 -0.159177 -0.113631 -0.130133 -0.132584 -0.131577 -0.151336 0.095877 -0.127078 -0.131582 0.004588 0.080044 -0.069676 -0.281472 -0.235703 0.032659 0.030036 -0.139662 -0.296721 -0.170241 0.070449 0.073046 0.013484 -0.240332 -0.018617 0.121260 0.074365 0.138741 -0.112982 -0.023415 0.139936 0.089199 0.072565 0.036335 0.041038 0.036470 0.062076 0.053822 0.025445 0.022304 0.033179 0.069229 0.042620 0.016597 0.035708 0.031476 0.059654 0.044717 0.024583 0.033803 0.017487 0.049190 0.068612 0.014342 0.013029 0.011001 0.040527 0.099878 0.107692 0.127669 0.155502 0.162617 0.061186 0.086224 0.099966 0.127547 0.140815 0.061828 0.079211 0.096646 0.131755 0.147636 0.063498 0.095639 0.098175 0.134794 0.156801 0.074194 0.096213 0.131620 0.13662 0.14012
-0.054840 -0.043686 -0.039770 -0.024295 -0.058293 -0.056322 -0.039457 -0.026149 -0.009713 -0.056989 -0.047978 -0.022033 -0.017463 -0.002259 -0.037985 -0.038680 -0.015593 -0.019118 0.004887 -0.032659 -0.046319 -0.016668 -0.007809 -0.006058 -0.011435 0.156753 0.200448 0.106461 0.054861 0.084063 0.150981 0.151516 0.020704 -0.034002 -0.070643 0.054831 0.026022 -0.052659 -0.106127 -0.089149 0.053536 0.062037 -0.056970 -0.119808 -0.078115 0.078318 0.014883 -0.000209 -0.069299 -0.128173 -0.064778 -0.099686 -0.054123 -0.075099 -0.062980 -0.081338 -0.107975 -0.071310 -0.063852 -0.043719 -0.000079 -0.107802 -0.060511 -0.057669 -0.055412 0.026229 -0.066730 -0.068568 -0.026885 -0.052214 0.144512 0.033938 -0.081113 -0.069556 -0.057799 0.242806 0.079875 -0.017864 0.104591 0.235862 0.174685 0.038930 -0.094916 -0.033196 0.126770 0.158359 0.022321 -0.192253 -0.145296 0.027179 0.144814 0.022152 -0.177055 -0.213774 0.029301 0.185945 0.080998 -0.166113 -0.156784 0.161398 -0.092992 -0.149358 -0.169628 -0.137995 -0.156103 -0.004388 -0.072860 -0.222119 -0.281228 -0.162201 0.015384 -0.002858 -0.023196 -0.031212 0.004148 -0.002846 0.011673 0.048984 0.068124 0.084173 0.086279 -0.012349 0.076175 0.091920 0.087263 -0.053857 -0.051989 -0.057839 -0.049271 -0.038603 -0.064627 -0.066621 -0.071653 -0.062100 -0.054033 -0.065799 -0.068992 -0.078806 -0.067702 -0.059910 -0.073215 -0.058175 -0.071491 -0.055292 -0.056109 -0.062324 -0.063104 -0.052919 -0.064199 -0.067281 -0.143906 -0.169203 0.044038 0.038315 0.059658 -0.178665 -0.250648 -0.004546 0.037891 0.106734 -0.102178 -0.174992 0.053856 0.104764 0.121829 0.065890 -0.152018 0.104256 0.157554 0.148960 0.170098 -0.072052 0.064585 0.195024 0.169911 -0.063500 -0.035182 -0.044156 -0.043813 -0.064401 -0.037382 -0.022631 -0.045298 -0.037765 -0.068134 -0.029049 -0.018044 -0.047187 -0.021018 -0.059103 -0.041481 0.002019 -0.007667 0.007166 -0.068075 -0.045857 -0.031309 -0.016013 -0.026375 -0.065559 0.121272 0.090963 -0.043895 0.130699 0.169344 0.074525 0.031821 -0.184582 0.000069 0.105698 0.157396 0.016773 -0.226273 -0.097189 0.041833 0.126244 0.017876 -0.195755 -0.239750 -0.162374 0.166023 0.034624 -0.221878 -0.285695 -0.203183 0.118799 0.154575 0.168512 0.158253 -0.008286 0.016146 0.073277 0.117402 0.053318 -0.074680 -0.029334 0.006263 0.051746 -0.029374 -0.181683 -0.057560 -0.051817 -0.043739 -0.092157 -0.264643 -0.057603 -0.076628 -0.054932 -0.122415 -0.267065 0.107944 0.093278 0.083500 0.134273 0.131496 0.102003 0.028104 -0.020253 0.054027 0.135676 0.004205 -0.049569 -0.091679 -0.002141 0.033020 -0.000492 -0.072907 -0.246154 -0.226612 -0.140351 0.125753 0.041426 -0.198427 -0.271413 -0.191506 0.282225 0.147388 0.012119 0.039081 0.025346 0.158134 0.081945 -0.082739 -0.023207 0.017948 0.109098 0.021363 -0.214200 -0.149580 0.002710 0.114793 -0.076158 -0.309714 -0.251535 0.025328 0.120307 -0.020573 -0.308290 -0.265080 0.087811 -0.055173 -0.028370 -0.031954 -0.025627 -0.066737 -0.050506 -0.006795 -0.022015 -0.004088 -0.035464 -0.050750 -0.007573 -0.002603 -0.018075 -0.045097 0.040637 -0.005773 0.006915 0.003035 -0.064192 -0.011137 -0.028753 -0.019348 -0.042475 -0.065730 0.158050 0.084929 0.112761 0.109865 0.194085 0.023467 0.002774 0.025317 0.004891 0.060278 0.007962 -0.077498 -0.056290 -0.075458 -0.022447 -0.086802 -0.182439 -0.125429 -0.174524 -0.168248 -0.073569 -0.156590 -0.084633 -0.125814 -0.087412 -0.096691 -0.099778 -0.093461 -0.092236 -0.071804 -0.091044 -0.084226 -0.079472 -0.070644 -0.075483 -0.071726 -0.062970 -0.078054 -0.049463 -0.050868 -0.063411 -0.055933 -0.059787 -0.044955 -0.039627 -0.068667 -0.051769 -0.059417 -0.040345 -0.031455 0.059404 -0.037754 -0.165705 -0.237086 -0.171553 0.040039 -0.003108 -0.176398 -0.275005 -0.259438 0.058503 0.031760 0.019737 -0.057947 0.052844 0.054318 0.022846 0.019297 0.049081 0.060780 0.051243 0.005977 -0.050012 0.013773 0.065121 -0.115085 -0.048268 -0.004160 0.055392 0.074591 -0.090412 -0.053106 -0.017204 0.043065 0.021923 -0.075580 -0.051407 -0.027540 0.006716 -0.000238 -0.077916 -0.058970 -0.041732 -0.038075 -0.057556 -0.091158 -0.079813 -0.059975 -0.083614 -0.1
0.032385 0.052770 0.061457 0.083865 0.081023 0.041001 0.060293 0.079364 0.091129 0.077356 0.053730 0.058007 0.082310 0.091410 0.082935 0.044219 0.044308 0.080521 0.084257 0.067453 0.018404 0.040595 0.060547 0.072591 0.049977 0.124885 0.110730 0.003504 -0.064293 -0.135626 0.180673 0.198996 0.057868 -0.033168 -0.109368 0.129890 0.150027 0.080745 -0.132815 -0.145130 0.106084 0.157571 0.103087 -0.115805 -0.203707 -0.020989 0.109791 0.028700 -0.171317 -0.252993 0.108088 0.122254 0.123575 0.082123 0.042077 0.089186 0.090925 0.083046 0.071696 0.005297 0.081594 0.088919 0.081456 0.041381 -0.054609 0.075809 0.081979 0.026835 -0.034427 -0.076252 0.045812 0.044910 0.019769 -0.053741 -0.092469 -0.209758 -0.199091 0.031987 0.138259 0.096050 -0.243015 -0.243401 0.012042 0.108293 0.073414 -0.122592 -0.167639 0.038746 0.114898 0.101728 -0.099545 -0.069520 0.073123 0.175914 0.123520 -0.149388 -0.085468 0.088405 0.196218 0.096924 -0.088135 -0.111903 -0.212297 -0.275455 -0.130466 -0.002547 0.009003 -0.139648 -0.336900 -0.127164 0.035539 0.069791 -0.014136 -0.172282 -0.030627 0.158024 0.155745 -0.000648 -0.204443 -0.021707 0.184143 0.095175 -0.028635 -0.177262 -0.094152 0.130307 0.070910 -0.020176 -0.079097 -0.124782 0.114169 0.065551 0.018889 -0.036710 -0.075798 0.141760 0.120939 0.011771 -0.089034 -0.156719 0.148768 0.101759 -0.009516 -0.082322 -0.110736 0.191806 0.128699 0.058856 -0.032444 -0.044632 -0.144094 -0.125137 -0.103848 -0.110898 -0.107821 -0.132229 -0.124281 -0.096262 -0.088580 -0.095841 -0.132616 -0.115110 -0.103253 -0.088281 -0.097236 -0.139467 -0.113945 -0.092189 -0.098200 -0.089689 -0.148055 -0.119762 -0.097290 -0.088205 -0.093397 -0.018714 0.057103 0.112359 0.166577 0.176100 -0.098156 -0.043075 -0.003863 0.091572 0.144623 -0.162909 -0.123121 -0.039903 0.087122 0.084986 -0.214936 -0.165033 -0.090569 0.036855 0.061105 -0.190959 -0.221185 -0.113844 0.034825 0.092648 0.041639 0.014071 0.120443 0.169594 0.216306 0.032402 -0.024410 0.101158 0.114685 0.085586 0.002287 -0.095699 -0.051416 -0.039532 -0.013838 0.006885 -0.174118 -0.199263 -0.204865 -0.108428 0.149634 0.061966 -0.048422 -0.186867 -0.103768 -0.055682 -0.053695 -0.063236 -0.057252 -0.077042 -0.065931 -0.079671 -0.072124 -0.057656 -0.125896 -0.056514 -0.078921 -0.070822 -0.083587 -0.044098 -0.076789 -0.058956 -0.080969 -0.022081 0.031178 -0.073326 -0.074204 -0.027877 0.047164 0.114156 -0.137143 -0.102011 -0.104963 -0.097689 0.046635 -0.059997 -0.175506 -0.149732 -0.015901 0.081562 0.054860 0.039943 0.037339 0.040655 -0.015305 0.071559 0.143499 0.175930 0.071581 -0.028407 0.166184 0.156875 0.101172 -0.026864 -0.047132 0.122057 0.065236 0.009955 0.162705 0.205785 0.048898 -0.029221 -0.097340 0.040669 0.110043 0.019488 -0.012737 -0.162375 -0.099228 0.041401 0.039911 -0.077559 -0.251957 -0.243246 -0.152747 0.145738 0.037298 -0.180891 -0.204853 -0.144977 0.066364 0.002333 -0.008835 -0.059201 -0.008828 -0.105744 -0.089036 -0.057267 -0.053390 -0.021960 -0.084774 -0.120549 -0.062034 -0.058973 -0.023169 0.023656 -0.122037 -0.049040 -0.025351 0.013335 0.079209 -0.057509 -0.071428 -0.055331 -0.024117 -0.133308 -0.080075 0.037150 0.059055 -0.005370 -0.176892 -0.100219 0.053830 0.093117 0.025866 -0.157961 -0.076389 0.137840 0.158780 0.134907 -0.236656 -0.127674 0.076039 0.174658 0.214328 -0.247875 -0.134474 0.025556 0.127153 0.162239 -0.024326 0.146577 0.114643 0.061802 -0.102724 -0.077159 0.102656 0.053382 -0.033483 -0.178002 -0.160002 -0.010682 -0.028408 -0.139638 -0.120967 -0.182251 -0.004090 0.020378 0.000849 0.055365 -0.147226 -0.004835 0.056047 0.034082 0.127203 0.124973 0.077506 0.104148 0.153468 0.125622 0.059668 0.018910 -0.032849 0.045389 0.011626 -0.003437 -0.051445 -0.090821 -0.022352 -0.057620 0.041560 -0.079398 -0.106327 -0.098789 -0.132907 0.047679 -0.019964 -0.099289 -0.146332 -0.138595 0.170056 0.036964 -0.028389 -0.083517 -0.145059 0.086941 -0.001438 -0.033295 -0.077017 -0.148012 0.166369 0.053554 -0.032098 -0.106484 -0.153692 0.184058 0.046695 -0.018693 -0.083748 -0.064380 0.201764 0.073865 0.005888 -0.034149 -0.095275 -0.047571 -0.194176 -0.242107 -0.144062
-0.063890 -0.009316 -0.240215 -0.290906 -0.234811 -0.040876 0.081484 -0.020078 -0.134238 -0.109104 0.096145 0.076948 0.057673 -0.055333 0.006789 0.082695 0.120664 -0.027275 -0.069972 -0.017233 0.121597 -0.336174 -0.234046 0.024794 0.000168 -0.067042 -0.294990 -0.190835 0.043546 0.017106 -0.014657 -0.104160 0.006668 0.134772 0.088073 0.031810 -0.131407 -0.008210 0.185998 0.213261 0.056374 -0.108946 -0.067064 0.158785 0.213162 0.047681 -0.063637 -0.043364 -0.059111 -0.053233 -0.083126 -0.064230 -0.053357 -0.053732 -0.044596 -0.073700 -0.057712 -0.042353 -0.053783 -0.034603 -0.081208 -0.051543 -0.045060 -0.046874 -0.039139 -0.073088 -0.066412 -0.033681 -0.046016 -0.055343 -0.078942 0.226631 0.099724 -0.057207 -0.055602 0.156330 0.083183 0.001722 -0.218128 -0.231509 0.047080 0.161149 -0.012854 -0.232701 -0.220100 0.092338 0.249512 0.085801 -0.172004 -0.125985 0.131585 0.180125 0.004804 -0.149559 -0.026364 0.312695 0.199365 0.059435 0.084177 0.155796 0.175776 -0.006097 -0.110039 -0.046604 0.066469 0.117799 -0.079542 -0.142909 -0.082894 0.058105 0.122813 -0.094968 -0.150844 -0.059623 0.099277 0.138134 -0.058929 -0.050440 -0.042553 0.100726 0.228716 0.136382 0.050972 0.052420 0.046193 0.081575 0.073900 0.026724 0.043843 0.028063 0.040985 0.064964 0.011553 0.018694 0.005625 0.038833 0.065219 0.007845 0.018241 0.010743 0.029543 0.075013 0.009992 0.018532 0.006286 -0.002972 -0.150572 -0.144667 -0.135182 -0.004587 0.094297 -0.035100 -0.231949 -0.194587 -0.052564 0.027247 0.030729 -0.102063 -0.108150 -0.045860 0.024205 0.088307 -0.105223 -0.063746 0.073607 0.144357 0.100781 -0.127584 -0.070877 0.069327 0.159997 -0.223256 -0.204140 0.018030 0.187315 0.051391 -0.146618 -0.166183 0.015597 0.182486 0.097954 -0.193913 -0.156586 0.023084 0.207065 0.053252 -0.181463 -0.161861 0.028680 0.190993 0.052535 -0.164502 -0.205104 -0.022517 0.166228 0.033905 -0.173679 -0.155801 -0.164572 -0.112243 -0.068924 -0.045834 -0.121458 -0.151229 -0.050166 -0.009894 0.018674 -0.047171 -0.043339 0.001614 -0.003393 0.014615 -0.054750 0.002406 -0.009959 0.033924 0.081394 0.021823 0.050228 0.051673 0.132092 0.222318 0.174676 0.137019 0.109746 0.140836 0.217584 0.190265 0.104487 -0.016545 0.027934 -0.020014 0.055739 0.077013 -0.035982 0.031108 -0.042650 -0.048772 0.004917 -0.084479 -0.114054 -0.077103 -0.058815 -0.040037 -0.157062 -0.151691 0.121349 -0.003305 -0.104648 -0.157121 -0.105728 0.102433 0.073535 -0.163275 -0.237890 -0.087674 0.213873 0.154084 -0.132875 -0.227235 0.059461 0.218186 0.167579 -0.052049 -0.181865 0.113839 0.290471 0.175450 -0.013075 -0.117272 0.224313 0.099348 0.056228 -0.027629 -0.209204 -0.196080 0.043319 0.089355 0.017969 -0.208953 -0.260824 0.033635 0.127292 0.105093 -0.189609 -0.178184 0.092673 0.155535 0.127046 -0.186911 -0.123700 0.182412 0.262800 0.155226 -0.144496 -0.176652 -0.155953 -0.156544 -0.163941 -0.183358 -0.166649 -0.143537 -0.153039 -0.161237 -0.177241 -0.170502 -0.137346 -0.146790 -0.155834 -0.159414 -0.163697 -0.128303 -0.141763 -0.144575 -0.157679 -0.159177 -0.113631 -0.130133 -0.132584 -0.131577 -0.151336 0.095877 -0.127078 -0.131582 0.004588 0.080044 -0.069676 -0.281472 -0.235703 0.032659 0.030036 -0.139662 -0.296721 -0.170241 0.070449 0.073046 0.013484 -0.240332 -0.018617 0.121260 0.074365 0.138741 -0.112982 -0.023415 0.139936 0.089199 0.072565 0.036335 0.041038 0.036470 0.062076 0.053822 0.025445 0.022304 0.033179 0.069229 0.042620 0.016597 0.035708 0.031476 0.059654 0.044717 0.024583 0.033803 0.017487 0.049190 0.068612 0.014342 0.013029 0.011001 0.040527 0.099878 0.107692 0.127669 0.155502 0.162617 0.061186 0.086224 0.099966 0.127547 0.140815 0.061828 0.079211 0.096646 0.131755 0.147636 0.063498 0.095639 0.098175 0.134794 0.156801 0.074194 0.096213 0.131620 0.13662 0.14012